{
  "timestamp": "2026-01-15T23:31:43.022571",
  "input_size": 6,
  "hidden_size": 12,
  "learning_rate": 0.01,
  "weights_input_hidden": [
    [
      0.3360986113548279,
      0.010388229042291641,
      0.0939563512802124,
      0.31177932024002075,
      -0.20915986597537994,
      -0.017523881047964096,
      -0.08401976525783539,
      -0.017417773604393005,
      0.2330666482448578,
      0.1455020308494568,
      0.06821150332689285,
      0.11898265779018402
    ],
    [
      0.14521493017673492,
      -0.06378059089183807,
      0.12439073622226715,
      0.2483530193567276,
      0.08832275867462158,
      -0.05092098191380501,
      -0.0036104656755924225,
      -0.05997059494256973,
      -0.06417886167764664,
      -0.05899657681584358,
      -0.13055621087551117,
      -0.13228730857372284
    ],
    [
      0.1806320697069168,
      -0.06976199895143509,
      0.07125522196292877,
      0.3542730212211609,
      -0.0374629981815815,
      0.008657100610435009,
      -0.0776686817407608,
      0.025223776698112488,
      -0.11708055436611176,
      0.1082557886838913,
      -0.016527289524674416,
      0.05400708690285683
    ],
    [
      0.259757399559021,
      0.023138325661420822,
      0.07041525840759277,
      0.2328968197107315,
      -0.08459029346704483,
      -0.15721073746681213,
      0.14779064059257507,
      -0.16785860061645508,
      -0.10580737888813019,
      0.056781090795993805,
      -0.020077668130397797,
      0.016143057495355606
    ],
    [
      0.09367165714502335,
      -0.052145373076200485,
      0.1599695384502411,
      0.39425522089004517,
      0.19853459298610687,
      0.06384792923927307,
      0.15274125337600708,
      0.03963474929332733,
      0.05087300017476082,
      0.17807349562644958,
      -0.03175937011837959,
      -0.09778515249490738
    ],
    [
      0.3759716749191284,
      0.1692662239074707,
      0.02755444124341011,
      0.26183444261550903,
      0.0946572944521904,
      -0.046466704457998276,
      -0.15070268511772156,
      0.1394805610179901,
      -0.03947483003139496,
      -0.00746337603777647,
      0.05538097396492958,
      -0.02562860958278179
    ]
  ],
  "bias_hidden": [
    [
      0.3121584355831146,
      -0.00878998078405857,
      0.04468177631497383,
      0.5009133815765381,
      -0.025157278403639793,
      0.0,
      -7.253717922139913e-05,
      -0.0004036937025375664,
      0.0,
      0.11522472649812698,
      0.0,
      0.0
    ]
  ],
  "weights_hidden_output": [
    [
      -0.6211344003677368
    ],
    [
      0.12403098493814468
    ],
    [
      -0.1752139925956726
    ],
    [
      -0.8904207348823547
    ],
    [
      0.023490071296691895
    ],
    [
      0.07592111825942993
    ],
    [
      0.1155831590294838
    ],
    [
      -0.16183263063430786
    ],
    [
      0.13087475299835205
    ],
    [
      -0.2066158801317215
    ],
    [
      -0.15231859683990479
    ],
    [
      0.057361453771591187
    ]
  ],
  "bias_output": [
    [
      -1.3317298889160156
    ]
  ],
  "training_history_count": 5,
  "epoch_losses": [
    0.9355744123458862,
    0.9354339241981506,
    0.9352930784225464,
    0.9351516962051392,
    0.9350099563598633,
    0.9347248673439026,
    0.9345816373825073,
    0.9344379305839539,
    0.9342936873435974,
    0.9341490864753723,
    0.9338582158088684,
    0.9337121844291687,
    0.9335655570030212,
    0.9334185123443604,
    0.9332709908485413,
    0.9329743385314941,
    0.9328252077102661,
    0.9326757788658142,
    0.9325256943702698,
    0.9323750734329224
  ]
}