{
  "timestamp": "2026-01-08T20:20:31.223669",
  "input_size": 6,
  "hidden_size": 12,
  "learning_rate": 0.01,
  "weights_input_hidden": [
    [
      0.23012280464172363,
      0.010388229042291641,
      0.06635687500238419,
      0.15705443918704987,
      -0.20915986597537994,
      -0.017523881047964096,
      -0.08401976525783539,
      -0.017417773604393005,
      0.2330666482448578,
      0.10964925587177277,
      0.06821150332689285,
      0.11898265779018402
    ],
    [
      0.03924478963017464,
      -0.06378059089183807,
      0.09678085148334503,
      0.09362787008285522,
      0.08832275867462158,
      -0.05092098191380501,
      -0.0036104656755924225,
      -0.05997059494256973,
      -0.06417886167764664,
      -0.09485242515802383,
      -0.13055621087551117,
      -0.13228730857372284
    ],
    [
      0.07466187328100204,
      -0.06976199895143509,
      0.04365553706884384,
      0.1995484083890915,
      -0.0374629981815815,
      0.008657100610435009,
      -0.0776686817407608,
      0.025223776698112488,
      -0.11708055436611176,
      0.07240734249353409,
      -0.016527289524674416,
      0.05400708690285683
    ],
    [
      0.15378150343894958,
      0.023138325661420822,
      0.042815566062927246,
      0.07817201316356659,
      -0.08459029346704483,
      -0.15721073746681213,
      0.14779064059257507,
      -0.16785860061645508,
      -0.10580737888813019,
      0.020928537473082542,
      -0.020077668130397797,
      0.016143057495355606
    ],
    [
      -0.012298937886953354,
      -0.052145373076200485,
      0.13235974311828613,
      0.23953081667423248,
      0.19853459298610687,
      0.06384792923927307,
      0.15274125337600708,
      0.03963474929332733,
      0.05087300017476082,
      0.1422203630208969,
      -0.03175937011837959,
      -0.09778515249490738
    ],
    [
      0.26999610662460327,
      0.1692662239074707,
      -4.575717684929259e-05,
      0.10710939764976501,
      0.0946572944521904,
      -0.046466704457998276,
      -0.15070268511772156,
      0.1394805610179901,
      -0.03947483003139496,
      -0.0433197058737278,
      0.05538097396492958,
      -0.02562860958278179
    ]
  ],
  "bias_hidden": [
    [
      0.10021793842315674,
      -0.00878998078405857,
      -0.01051868125796318,
      0.1914633810520172,
      -0.025157278403639793,
      0.0,
      -7.253717922139913e-05,
      -0.0004036937025375664,
      0.0,
      0.043519601225852966,
      0.0,
      0.0
    ]
  ],
  "weights_hidden_output": [
    [
      -0.2661438584327698
    ],
    [
      0.12403098493814468
    ],
    [
      -0.055985696613788605
    ],
    [
      -0.40505027770996094
    ],
    [
      0.023490071296691895
    ],
    [
      0.07592111825942993
    ],
    [
      0.1155831590294838
    ],
    [
      -0.16183263063430786
    ],
    [
      0.13087475299835205
    ],
    [
      -0.09354821592569351
    ],
    [
      -0.15231859683990479
    ],
    [
      0.057361453771591187
    ]
  ],
  "bias_output": [
    [
      -0.8280496597290039
    ]
  ],
  "training_history_count": 12,
  "epoch_losses": []
}