{
  "timestamp": "2026-01-09T18:04:53.687649",
  "input_size": 6,
  "hidden_size": 12,
  "learning_rate": 0.01,
  "weights_input_hidden": [
    [
      -0.10364318639039993,
      0.05088884383440018,
      -0.086710125207901,
      -0.03246679902076721,
      -0.04851871728897095,
      -0.11656218022108078,
      -0.011540473438799381,
      -0.06204164773225784,
      -0.09360171109437943,
      -0.0899539515376091,
      0.12845785915851593,
      -0.12575896084308624
    ],
    [
      -0.03220268338918686,
      0.04415741562843323,
      0.012096686288714409,
      -0.10954182595014572,
      -0.08273762464523315,
      0.13409797847270966,
      -0.12112140655517578,
      0.05185119807720184,
      -0.14072440564632416,
      0.18557775020599365,
      0.002448671730235219,
      0.11236728727817535
    ],
    [
      -0.050520140677690506,
      0.04903305694460869,
      -0.20401915907859802,
      0.09568726271390915,
      0.03565385937690735,
      0.017608076333999634,
      -0.1332416832447052,
      0.022159194573760033,
      0.08533871173858643,
      -0.11416243016719818,
      0.009441673755645752,
      0.11447348445653915
    ],
    [
      0.04773712158203125,
      -0.02349386364221573,
      0.15656672418117523,
      -0.0035879486240446568,
      -0.2745899260044098,
      0.06566905230283737,
      -0.2779857814311981,
      -0.057396385818719864,
      -0.16622547805309296,
      0.18906554579734802,
      -0.1267857402563095,
      -0.08978042006492615
    ],
    [
      -0.19938449561595917,
      0.16242660582065582,
      -0.10199441015720367,
      -0.0376741960644722,
      0.019958147779107094,
      0.036057859659194946,
      0.014619756489992142,
      0.11899939924478531,
      -0.09421394765377045,
      -0.08151431381702423,
      0.02509060688316822,
      -0.012173129245638847
    ],
    [
      -0.02196563594043255,
      -0.06322536617517471,
      -0.10680705308914185,
      0.014743288978934288,
      -0.04779332876205444,
      0.0010507656261324883,
      0.07369992136955261,
      -0.004377607721835375,
      -0.19972635805606842,
      0.021033987402915955,
      0.014639843255281448,
      -0.19228650629520416
    ]
  ],
  "bias_hidden": [
    [
      0.0,
      0.001282090088352561,
      0.0,
      0.0,
      0.0,
      0.00144870369695127,
      0.0,
      0.00031837596907280385,
      0.0,
      0.0,
      0.0014708680100739002,
      0.0
    ]
  ],
  "weights_hidden_output": [
    [
      -0.2055342197418213
    ],
    [
      0.06330100446939468
    ],
    [
      -0.03515808284282684
    ],
    [
      0.08911122381687164
    ],
    [
      -0.20926906168460846
    ],
    [
      0.13111469149589539
    ],
    [
      0.06234152615070343
    ],
    [
      0.015606422908604145
    ],
    [
      0.017240876331925392
    ],
    [
      -0.05109488591551781
    ],
    [
      0.07137960195541382
    ],
    [
      -0.028340937569737434
    ]
  ],
  "bias_output": [
    [
      0.02093067206442356
    ]
  ],
  "training_history_count": 4,
  "epoch_losses": []
}