{
  "timestamp": "2026-01-16T16:02:55.633467",
  "input_size": 6,
  "hidden_size": 12,
  "learning_rate": 0.01,
  "weights_input_hidden": [
    [
      0.29433673620224,
      0.010388229042291641,
      0.2832053303718567,
      0.031255073845386505,
      -0.20915986597537994,
      -0.017523881047964096,
      -0.08401976525783539,
      -0.017417773604393005,
      0.2330666482448578,
      0.08024178445339203,
      0.06821150332689285,
      0.11898265779018402
    ],
    [
      0.10345395654439926,
      -0.06378059089183807,
      0.3136399984359741,
      -0.03217114880681038,
      0.08832275867462158,
      -0.05092098191380501,
      -0.0036104656755924225,
      -0.05997059494256973,
      -0.06417886167764664,
      -0.12425689399242401,
      -0.13055621087551117,
      -0.13228730857372284
    ],
    [
      0.1388709992170334,
      -0.06976199895143509,
      0.2605040967464447,
      0.07374901324510574,
      -0.0374629981815815,
      0.008657100610435009,
      -0.0776686817407608,
      0.025223776698112488,
      -0.11708055436611176,
      0.04299560561776161,
      -0.016527289524674416,
      0.05400708690285683
    ],
    [
      0.2179960459470749,
      0.023138325661420822,
      0.2596641778945923,
      -0.04762742668390274,
      -0.08459029346704483,
      -0.15721073746681213,
      0.14779064059257507,
      -0.16785860061645508,
      -0.10580737888813019,
      -0.00847911462187767,
      -0.020077668130397797,
      0.016143057495355606
    ],
    [
      0.051910463720560074,
      -0.052145373076200485,
      0.34921878576278687,
      0.11373123526573181,
      0.19853459298610687,
      0.06384792923927307,
      0.15274125337600708,
      0.03963474929332733,
      0.05087300017476082,
      0.11281339079141617,
      -0.03175937011837959,
      -0.09778515249490738
    ],
    [
      0.3342096507549286,
      0.1692662239074707,
      0.21680334210395813,
      -0.018689438700675964,
      0.0946572944521904,
      -0.046466704457998276,
      -0.15070268511772156,
      0.1394805610179901,
      -0.03947483003139496,
      -0.07272365689277649,
      0.05538097396492958,
      -0.02562860958278179
    ]
  ],
  "bias_hidden": [
    [
      0.2286364883184433,
      -0.00878998078405857,
      0.4231795072555542,
      -0.06013493239879608,
      -0.025157278403639793,
      0.0,
      -7.253717922139913e-05,
      -0.0004036937025375664,
      0.0,
      -0.015295672230422497,
      0.0,
      0.0
    ]
  ],
  "weights_hidden_output": [
    [
      0.48478737473487854
    ],
    [
      0.12403098493814468
    ],
    [
      0.7937116026878357
    ],
    [
      -0.0767548531293869
    ],
    [
      0.023490071296691895
    ],
    [
      0.07592111825942993
    ],
    [
      0.1155831590294838
    ],
    [
      -0.16183263063430786
    ],
    [
      0.13087475299835205
    ],
    [
      -0.01002900954335928
    ],
    [
      -0.15231859683990479
    ],
    [
      0.057361453771591187
    ]
  ],
  "bias_output": [
    [
      1.2684694528579712
    ]
  ],
  "training_history_count": 504,
  "epoch_losses": [
    0.0044908421114087105,
    0.004488964565098286,
    0.004487087484449148,
    0.0044852267019450665,
    0.004483368247747421,
    0.00447962386533618,
    0.0044777654111385345,
    0.004475907422602177,
    0.00447404058650136,
    0.004472184460610151,
    0.004470325540751219,
    0.004468461032956839,
    0.004466603975743055,
    0.004464748781174421,
    0.004462901037186384,
    0.004459182266145945,
    0.004457335453480482,
    0.004455498419702053,
    0.004453636240214109,
    0.004451798275113106,
    0.0044481088407337666,
    0.0044462718069553375,
    0.004444427322596312,
    0.00444258376955986,
    0.0044407411478459835,
    0.00443706288933754,
    0.004435237962752581,
    0.004433396738022566,
    0.004431571811437607,
    0.0044297464191913605,
    0.004426081199198961,
    0.004424255806952715,
    0.004422418307512999,
    0.004420594312250614,
    0.004418771248310804,
    0.00441514328122139,
    0.004413321148604155,
    0.004411499481648207,
    0.004409678280353546,
    0.004407866392284632,
    0.00440424308180809,
    0.004402422811836004,
    0.004400611389428377,
    0.004398809280246496,
    0.004396998789161444,
    0.004393379203975201,
    0.004391577560454607,
    0.004389768932014704,
    0.004387975670397282,
    0.0043861763551831245,
    0.004382569342851639,
    0.004380777012556791,
    0.0043789781630039215,
    0.004377187695354223,
    0.004375390708446503,
    0.004371811170130968,
    0.004370022565126419,
    0.004368241876363754,
    0.004366436041891575,
    0.004364647902548313,
    0.004361089784651995,
    0.004359310958534479,
    0.004357524216175079,
    0.004355738405138254,
    0.004353968892246485,
    0.00435041356831789,
    0.00434862868860364,
    0.004346860572695732,
    0.004345092456787825,
    0.004343308042734861,
    0.004339774139225483,
    0.004338006488978863,
    0.004336241167038679,
    0.0043344758450984955,
    0.0043327175080776215,
    0.0043291859328746796,
    0.004327422473579645,
    0.004325665067881346,
    0.004323901142925024,
    0.0043221525847911835,
    0.004318634979426861,
    0.004316880367696285,
    0.0043151346035301685,
    0.00431338744238019,
    0.0043116346932947636,
    0.004308137111365795,
    0.004306391812860966,
    0.004304639995098114,
    0.0043028960935771465,
    0.004301160108298063,
    0.00429767370223999,
    0.004295931197702885,
    0.004294196609407663,
    0.004292455036193132,
    0.00429072231054306,
    0.004287254065275192,
    0.0042855218052864075,
    0.004283789545297623,
    0.004282064735889435,
    0.0042803348042070866
  ]
}