{
  "timestamp": "2026-01-09T10:00:29.314831",
  "input_size": 6,
  "hidden_size": 12,
  "learning_rate": 0.01,
  "weights_input_hidden": [
    [
      0.23651672899723053,
      0.010388229042291641,
      0.06774403154850006,
      0.16673357784748077,
      -0.20915986597537994,
      -0.017523881047964096,
      -0.08401976525783539,
      -0.017417773604393005,
      0.2330666482448578,
      0.11188562214374542,
      0.06821150332689285,
      0.11898265779018402
    ],
    [
      0.04563870653510094,
      -0.06378059089183807,
      0.09816800802946091,
      0.10330699384212494,
      0.08832275867462158,
      -0.05092098191380501,
      -0.0036104656755924225,
      -0.05997059494256973,
      -0.06417886167764664,
      -0.09261605888605118,
      -0.13055621087551117,
      -0.13228730857372284
    ],
    [
      0.08105583488941193,
      -0.06976199895143509,
      0.04504270851612091,
      0.2092275470495224,
      -0.0374629981815815,
      0.008657100610435009,
      -0.0776686817407608,
      0.025223776698112488,
      -0.11708055436611176,
      0.07464370876550674,
      -0.016527289524674416,
      0.05400708690285683
    ],
    [
      0.16017542779445648,
      0.023138325661420822,
      0.044202737510204315,
      0.0878511369228363,
      -0.08459029346704483,
      -0.15721073746681213,
      0.14779064059257507,
      -0.16785860061645508,
      -0.10580737888813019,
      0.023164911195635796,
      -0.020077668130397797,
      0.016143057495355606
    ],
    [
      -0.005905007943511009,
      -0.052145373076200485,
      0.13374696671962738,
      0.2492099553346634,
      0.19853459298610687,
      0.06384792923927307,
      0.15274125337600708,
      0.03963474929332733,
      0.05087300017476082,
      0.14445674419403076,
      -0.03175937011837959,
      -0.09778515249490738
    ],
    [
      0.27639004588127136,
      0.1692662239074707,
      0.0013414175482466817,
      0.11678852140903473,
      0.0946572944521904,
      -0.046466704457998276,
      -0.15070268511772156,
      0.1394805610179901,
      -0.03947483003139496,
      -0.041083335876464844,
      0.05538097396492958,
      -0.02562860958278179
    ]
  ],
  "bias_hidden": [
    [
      0.11300577223300934,
      -0.00878998078405857,
      -0.007744328584522009,
      0.21082162857055664,
      -0.025157278403639793,
      0.0,
      -7.253717922139913e-05,
      -0.0004036937025375664,
      0.0,
      0.04799234867095947,
      0.0,
      0.0
    ]
  ],
  "weights_hidden_output": [
    [
      -0.2889060080051422
    ],
    [
      0.12403098493814468
    ],
    [
      -0.06446147710084915
    ],
    [
      -0.4351487457752228
    ],
    [
      0.023490071296691895
    ],
    [
      0.07592111825942993
    ],
    [
      0.1155831590294838
    ],
    [
      -0.16183263063430786
    ],
    [
      0.13087475299835205
    ],
    [
      -0.10058126598596573
    ],
    [
      -0.15231859683990479
    ],
    [
      0.057361453771591187
    ]
  ],
  "bias_output": [
    [
      -0.8741634488105774
    ]
  ],
  "training_history_count": 2,
  "epoch_losses": []
}