{
  "timestamp": "2026-01-14T18:16:18.141512",
  "input_size": 6,
  "hidden_size": 12,
  "learning_rate": 0.01,
  "weights_input_hidden": [
    [
      0.3677476644515991,
      0.010388229042291641,
      0.10296028107404709,
      0.3570549488067627,
      -0.20915986597537994,
      -0.017523881047964096,
      -0.08401976525783539,
      -0.017417773604393005,
      0.2330666482448578,
      0.15600962936878204,
      0.06821150332689285,
      0.11898265779018402
    ],
    [
      0.17686355113983154,
      -0.06378059089183807,
      0.1333944946527481,
      0.29362863302230835,
      0.08832275867462158,
      -0.05092098191380501,
      -0.0036104656755924225,
      -0.05997059494256973,
      -0.06417886167764664,
      -0.04848890006542206,
      -0.13055621087551117,
      -0.13228730857372284
    ],
    [
      0.21228069067001343,
      -0.06976199895143509,
      0.08025915175676346,
      0.39954864978790283,
      -0.0374629981815815,
      0.008657100610435009,
      -0.0776686817407608,
      0.025223776698112488,
      -0.11708055436611176,
      0.1187635287642479,
      -0.016527289524674416,
      0.05400708690285683
    ],
    [
      0.29140645265579224,
      0.023138325661420822,
      0.07941918820142746,
      0.2781726121902466,
      -0.08459029346704483,
      -0.15721073746681213,
      0.14779064059257507,
      -0.16785860061645508,
      -0.10580737888813019,
      0.06728886067867279,
      -0.020077668130397797,
      0.016143057495355606
    ],
    [
      0.12532034516334534,
      -0.052145373076200485,
      0.16897337138652802,
      0.4395308494567871,
      0.19853459298610687,
      0.06384792923927307,
      0.15274125337600708,
      0.03963474929332733,
      0.05087300017476082,
      0.18858109414577484,
      -0.03175937011837959,
      -0.09778515249490738
    ],
    [
      0.40762072801589966,
      0.1692662239074707,
      0.03655838966369629,
      0.307110071182251,
      0.0946572944521904,
      -0.046466704457998276,
      -0.15070268511772156,
      0.1394805610179901,
      -0.03947483003139496,
      0.0030443298164755106,
      0.05538097396492958,
      -0.02562860958278179
    ]
  ],
  "bias_hidden": [
    [
      0.37545567750930786,
      -0.00878998078405857,
      0.06268967688083649,
      0.591464638710022,
      -0.025157278403639793,
      0.0,
      -7.253717922139913e-05,
      -0.0004036937025375664,
      0.0,
      0.13624024391174316,
      0.0,
      0.0
    ]
  ],
  "weights_hidden_output": [
    [
      -0.7234705090522766
    ],
    [
      0.12403098493814468
    ],
    [
      -0.20731490850448608
    ],
    [
      -1.0331330299377441
    ],
    [
      0.023490071296691895
    ],
    [
      0.07592111825942993
    ],
    [
      0.1155831590294838
    ],
    [
      -0.16183263063430786
    ],
    [
      0.13087475299835205
    ],
    [
      -0.23981013894081116
    ],
    [
      -0.15231859683990479
    ],
    [
      0.057361453771591187
    ]
  ],
  "bias_output": [
    [
      -1.4260352849960327
    ]
  ],
  "training_history_count": 1,
  "epoch_losses": []
}