{
  "timestamp": "2026-01-16T00:14:33.725241",
  "input_size": 6,
  "hidden_size": 12,
  "learning_rate": 0.01,
  "weights_input_hidden": [
    [
      0.3348875045776367,
      0.010388229042291641,
      0.09361483156681061,
      0.31004300713539124,
      -0.20915986597537994,
      -0.017523881047964096,
      -0.08401976525783539,
      -0.017417773604393005,
      0.2330666482448578,
      0.14509913325309753,
      0.06821150332689285,
      0.11898265779018402
    ],
    [
      0.14400379359722137,
      -0.06378059089183807,
      0.12404921650886536,
      0.2466166615486145,
      0.08832275867462158,
      -0.05092098191380501,
      -0.0036104656755924225,
      -0.05997059494256973,
      -0.06417886167764664,
      -0.059399474412202835,
      -0.13055621087551117,
      -0.13228730857372284
    ],
    [
      0.17942093312740326,
      -0.06976199895143509,
      0.07091370224952698,
      0.35253670811653137,
      -0.0374629981815815,
      0.008657100610435009,
      -0.0776686817407608,
      0.025223776698112488,
      -0.11708055436611176,
      0.10785289108753204,
      -0.016527289524674416,
      0.05400708690285683
    ],
    [
      0.25854629278182983,
      0.023138325661420822,
      0.07007373869419098,
      0.2311604619026184,
      -0.08459029346704483,
      -0.15721073746681213,
      0.14779064059257507,
      -0.16785860061645508,
      -0.10580737888813019,
      0.05637819319963455,
      -0.020077668130397797,
      0.016143057495355606
    ],
    [
      0.09246055036783218,
      -0.052145373076200485,
      0.1596280187368393,
      0.39251890778541565,
      0.19853459298610687,
      0.06384792923927307,
      0.15274125337600708,
      0.03963474929332733,
      0.05087300017476082,
      0.17767059803009033,
      -0.03175937011837959,
      -0.09778515249490738
    ],
    [
      0.37476056814193726,
      0.1692662239074707,
      0.027212923392653465,
      0.2600981295108795,
      0.0946572944521904,
      -0.046466704457998276,
      -0.15070268511772156,
      0.1394805610179901,
      -0.03947483003139496,
      -0.007866275496780872,
      0.05538097396492958,
      -0.02562860958278179
    ]
  ],
  "bias_hidden": [
    [
      0.3097361624240875,
      -0.00878998078405857,
      0.04399874061346054,
      0.4974406957626343,
      -0.025157278403639793,
      0.0,
      -7.253717922139913e-05,
      -0.0004036937025375664,
      0.0,
      0.11441893130540848,
      0.0,
      0.0
    ]
  ],
  "weights_hidden_output": [
    [
      -0.6172035932540894
    ],
    [
      0.12403098493814468
    ],
    [
      -0.17397159337997437
    ],
    [
      -0.8849506378173828
    ],
    [
      0.023490071296691895
    ],
    [
      0.07592111825942993
    ],
    [
      0.1155831590294838
    ],
    [
      -0.16183263063430786
    ],
    [
      0.13087475299835205
    ],
    [
      -0.2053433209657669
    ],
    [
      -0.15231859683990479
    ],
    [
      0.057361453771591187
    ]
  ],
  "bias_output": [
    [
      -1.3278189897537231
    ]
  ],
  "training_history_count": 1,
  "epoch_losses": []
}