{
  "timestamp": "2026-01-16T15:29:19.083141",
  "input_size": 6,
  "hidden_size": 12,
  "learning_rate": 0.01,
  "weights_input_hidden": [
    [
      0.2900446653366089,
      0.010388229042291641,
      0.27617478370666504,
      0.031255073845386505,
      -0.20915986597537994,
      -0.017523881047964096,
      -0.08401976525783539,
      -0.017417773604393005,
      0.2330666482448578,
      0.08024178445339203,
      0.06821150332689285,
      0.11898265779018402
    ],
    [
      0.09916190803050995,
      -0.06378059089183807,
      0.30660945177078247,
      -0.03217114880681038,
      0.08832275867462158,
      -0.05092098191380501,
      -0.0036104656755924225,
      -0.05997059494256973,
      -0.06417886167764664,
      -0.12425689399242401,
      -0.13055621087551117,
      -0.13228730857372284
    ],
    [
      0.13457894325256348,
      -0.06976199895143509,
      0.25347355008125305,
      0.07374901324510574,
      -0.0374629981815815,
      0.008657100610435009,
      -0.0776686817407608,
      0.025223776698112488,
      -0.11708055436611176,
      0.04299560561776161,
      -0.016527289524674416,
      0.05400708690285683
    ],
    [
      0.21370398998260498,
      0.023138325661420822,
      0.25263363122940063,
      -0.04762742668390274,
      -0.08459029346704483,
      -0.15721073746681213,
      0.14779064059257507,
      -0.16785860061645508,
      -0.10580737888813019,
      -0.00847911462187767,
      -0.020077668130397797,
      0.016143057495355606
    ],
    [
      0.04761844500899315,
      -0.052145373076200485,
      0.3421882390975952,
      0.11373123526573181,
      0.19853459298610687,
      0.06384792923927307,
      0.15274125337600708,
      0.03963474929332733,
      0.05087300017476082,
      0.11281339079141617,
      -0.03175937011837959,
      -0.09778515249490738
    ],
    [
      0.3299175798892975,
      0.1692662239074707,
      0.2097727507352829,
      -0.018689438700675964,
      0.0946572944521904,
      -0.046466704457998276,
      -0.15070268511772156,
      0.1394805610179901,
      -0.03947483003139496,
      -0.07272365689277649,
      0.05538097396492958,
      -0.02562860958278179
    ]
  ],
  "bias_hidden": [
    [
      0.22005239129066467,
      -0.00878998078405857,
      0.40911832451820374,
      -0.06013493239879608,
      -0.025157278403639793,
      0.0,
      -7.253717922139913e-05,
      -0.0004036937025375664,
      0.0,
      -0.015295672230422497,
      0.0,
      0.0
    ]
  ],
  "weights_hidden_output": [
    [
      0.47062212228775024
    ],
    [
      0.12403098493814468
    ],
    [
      0.7713013291358948
    ],
    [
      -0.0767548531293869
    ],
    [
      0.023490071296691895
    ],
    [
      0.07592111825942993
    ],
    [
      0.1155831590294838
    ],
    [
      -0.16183263063430786
    ],
    [
      0.13087475299835205
    ],
    [
      -0.01002900954335928
    ],
    [
      -0.15231859683990479
    ],
    [
      0.057361453771591187
    ]
  ],
  "bias_output": [
    [
      1.2504980564117432
    ]
  ],
  "training_history_count": 446,
  "epoch_losses": [
    0.00538455368950963,
    0.00538201630115509,
    0.005379498470574617,
    0.005376953631639481,
    0.005374437663704157,
    0.005369396880269051,
    0.005366872064769268,
    0.00536434818059206,
    0.005361851304769516,
    0.005359329748898745,
    0.00535430246964097,
    0.005351807456463575,
    0.005349305924028158,
    0.005346786230802536,
    0.005344285164028406,
    0.005339302588254213,
    0.005336802452802658,
    0.005334304179996252,
    0.005331821274012327,
    0.005329323932528496,
    0.0053243557922542095,
    0.0053218756802380085,
    0.005319381132721901,
    0.0053168958984315395,
    0.005314434878528118,
    0.005311951041221619,
    0.0053094737231731415,
    0.005307008512318134,
    0.005304532591253519,
    0.005302067846059799,
    0.005299593321979046,
    0.005297130439430475,
    0.005294667091220617,
    0.005292212590575218,
    0.005289748311042786,
    0.005284825339913368,
    0.0052823834121227264,
    0.005279930774122477,
    0.005277477670460939,
    0.005275028292089701,
    0.00527013698592782,
    0.005267696920782328,
    0.005265257321298122,
    0.005262817721813917,
    0.005260382313281298,
    0.005255513824522495,
    0.005253077019006014,
    0.0052506569772958755,
    0.0052482313476502895,
    0.005245796870440245,
    0.005240954924374819,
    0.005238537210971117,
    0.005236112046986818,
    0.005233690142631531,
    0.0052312929183244705,
    0.00522645516321063,
    0.005224051885306835,
    0.005221650004386902,
    0.005219227634370327,
    0.005216826219111681,
    0.005212029907852411,
    0.005209630820900202,
    0.005207237787544727,
    0.005204848013818264,
    0.005202457308769226,
    0.005197678226977587,
    0.00519527867436409,
    0.00519289867952466,
    0.005190520081669092,
    0.005188132636249065,
    0.005183377303183079,
    0.005180992651730776,
    0.005178631749004126,
    0.005176256876438856,
    0.0051738726906478405,
    0.005169149022549391,
    0.005166775081306696,
    0.00516440998762846,
    0.0051620458252727985,
    0.005159690510481596,
    0.00515734450891614,
    0.00515498174354434,
    0.00515262084081769,
    0.005150275770574808,
    0.005147915333509445,
    0.005143221002072096,
    0.005140878725796938,
    0.005138535518199205,
    0.005136195570230484,
    0.005133855156600475,
    0.005129166413098574,
    0.005126844625920057,
    0.0051245056092739105,
    0.005122185219079256,
    0.0051198392175138,
    0.005117520224303007,
    0.00511518307030201,
    0.005112855229526758,
    0.005110538564622402,
    0.00510821957141161
  ]
}