{
  "timestamp": "2026-01-09T19:29:30.532911",
  "input_size": 6,
  "hidden_size": 12,
  "learning_rate": 0.01,
  "weights_input_hidden": [
    [
      -0.10364318639039993,
      0.05263867229223251,
      -0.086710125207901,
      -0.03246679902076721,
      -0.04851871728897095,
      -0.11433535814285278,
      -0.011540473438799381,
      -0.06161591410636902,
      -0.09360171109437943,
      -0.09001626819372177,
      0.13039830327033997,
      -0.12575896084308624
    ],
    [
      -0.03220268338918686,
      0.04476650059223175,
      0.012096686288714409,
      -0.10954182595014572,
      -0.08273762464523315,
      0.13489356637001038,
      -0.12112140655517578,
      0.05199946463108063,
      -0.14072440564632416,
      0.1855362057685852,
      0.003124547190964222,
      0.11236728727817535
    ],
    [
      -0.050520140677690506,
      0.05042056366801262,
      -0.20401915907859802,
      0.09568726271390915,
      0.03565385937690735,
      0.01948362961411476,
      -0.1332416832447052,
      0.022496456280350685,
      0.08533871173858643,
      -0.11420605331659317,
      0.010977366007864475,
      0.11447348445653915
    ],
    [
      0.04773712158203125,
      -0.02270057052373886,
      0.15656672418117523,
      -0.0035879486240446568,
      -0.2745899260044098,
      0.06678245216608047,
      -0.2779857814311981,
      -0.05720333382487297,
      -0.16622547805309296,
      0.1890343874692917,
      -0.12590435147285461,
      -0.08978042006492615
    ],
    [
      -0.19938449561595917,
      0.16381411254405975,
      -0.10199441015720367,
      -0.0376741960644722,
      0.019958147779107094,
      0.03793341666460037,
      0.014619756489992142,
      0.11933665722608566,
      -0.09421394765377045,
      -0.08155793696641922,
      0.02662630006670952,
      -0.012173129245638847
    ],
    [
      -0.02196563594043255,
      -0.06232544779777527,
      -0.10680705308914185,
      0.014743288978934288,
      -0.04779332876205444,
      0.0021963350009173155,
      0.07369992136955261,
      -0.00415866170078516,
      -0.19972635805606842,
      0.02100171521306038,
      0.0156377162784338,
      -0.19228650629520416
    ]
  ],
  "bias_hidden": [
    [
      0.0,
      0.0030319225043058395,
      0.0,
      0.0,
      0.0,
      0.00367552787065506,
      0.0,
      0.0007441008347086608,
      0.0,
      -6.231523730093613e-05,
      0.003411297220736742,
      0.0
    ]
  ],
  "weights_hidden_output": [
    [
      -0.2055342197418213
    ],
    [
      0.0684954822063446
    ],
    [
      -0.03515808284282684
    ],
    [
      0.08911122381687164
    ],
    [
      -0.20926906168460846
    ],
    [
      0.13137884438037872
    ],
    [
      0.06234152615070343
    ],
    [
      0.016681110486388206
    ],
    [
      0.017240876331925392
    ],
    [
      -0.051092181354761124
    ],
    [
      0.07435452193021774
    ],
    [
      -0.028340937569737434
    ]
  ],
  "bias_output": [
    [
      0.0476301833987236
    ]
  ],
  "training_history_count": 11,
  "epoch_losses": []
}