{
  "timestamp": "2026-01-08T17:13:41.175378",
  "input_size": 6,
  "hidden_size": 12,
  "learning_rate": 0.01,
  "weights_input_hidden": [
    [
      0.2262839376926422,
      0.010388229042291641,
      0.06556712836027145,
      0.15119004249572754,
      -0.2089053988456726,
      -0.017523881047964096,
      -0.08401976525783539,
      -0.017417773604393005,
      0.2330666482448578,
      0.10829523950815201,
      0.06821150332689285,
      0.11898265779018402
    ],
    [
      0.03540594503283501,
      -0.06378059089183807,
      0.0959911048412323,
      0.08776351809501648,
      0.08857721090316772,
      -0.05092098191380501,
      -0.0036104656755924225,
      -0.05997059494256973,
      -0.06417886167764664,
      -0.09620644152164459,
      -0.13055621087551117,
      -0.13228730857372284
    ],
    [
      0.07082301378250122,
      -0.06976199895143509,
      0.04286579042673111,
      0.19368401169776917,
      -0.03720855712890625,
      0.008657100610435009,
      -0.0776686817407608,
      0.025223776698112488,
      -0.11708055436611176,
      0.07105332612991333,
      -0.016527289524674416,
      0.05400708690285683
    ],
    [
      0.14994263648986816,
      0.023138325661420822,
      0.042025819420814514,
      0.07230766117572784,
      -0.08433584123849869,
      -0.15721073746681213,
      0.14779064059257507,
      -0.16785860061645508,
      -0.10580737888813019,
      0.01957452856004238,
      -0.020077668130397797,
      0.016143057495355606
    ],
    [
      -0.01613778993487358,
      -0.052145373076200485,
      0.1315699964761734,
      0.23366641998291016,
      0.1987890601158142,
      0.06384792923927307,
      0.15274125337600708,
      0.03963474929332733,
      0.05087300017476082,
      0.14086635410785675,
      -0.03175937011837959,
      -0.09778515249490738
    ],
    [
      0.26615726947784424,
      0.1692662239074707,
      -0.000835502753034234,
      0.10124504566192627,
      0.09491174668073654,
      -0.046466704457998276,
      -0.15070268511772156,
      0.1394805610179901,
      -0.03947483003139496,
      -0.04467371851205826,
      0.05538097396492958,
      -0.02562860958278179
    ]
  ],
  "bias_hidden": [
    [
      0.09254024922847748,
      -0.00878998078405857,
      -0.012098170816898346,
      0.17973467707633972,
      -0.024648381397128105,
      0.0,
      -7.253717922139913e-05,
      -0.0004036937025375664,
      0.0,
      0.040811583399772644,
      0.0,
      0.0
    ]
  ],
  "weights_hidden_output": [
    [
      -0.25226935744285583
    ],
    [
      0.12403098493814468
    ],
    [
      -0.050698284059762955
    ],
    [
      -0.38685330748558044
    ],
    [
      0.023503970354795456
    ],
    [
      0.07592111825942993
    ],
    [
      0.1155831590294838
    ],
    [
      -0.16183263063430786
    ],
    [
      0.13087475299835205
    ],
    [
      -0.08929305523633957
    ],
    [
      -0.15231859683990479
    ],
    [
      0.057361453771591187
    ]
  ],
  "bias_output": [
    [
      -0.7984133958816528
    ]
  ],
  "training_history_count": 470,
  "epoch_losses": []
}