{
  "timestamp": "2026-01-09T17:40:02.107578",
  "input_size": 6,
  "hidden_size": 12,
  "learning_rate": 0.01,
  "weights_input_hidden": [
    [
      -0.10364318886925923,
      0.04997708560912849,
      -0.08671012620031188,
      -0.032466800244066674,
      -0.04851871836491181,
      -0.11752600977509971,
      -0.011540473322519233,
      -0.06226757045153267,
      -0.09360171187068872,
      -0.0899539548859953,
      0.1274169181858869,
      -0.12575895837413437
    ],
    [
      -0.03220268504921109,
      0.0438029247272584,
      0.012096686318328628,
      -0.10954182853454963,
      -0.08273762826838167,
      0.13366990450599509,
      -0.12112140455820042,
      0.05176337380409852,
      -0.14072441142034806,
      0.18557774434428873,
      0.002044057974949074,
      0.11236728377391376
    ],
    [
      -0.05052014090626211,
      0.048349120376945096,
      -0.20401916043889323,
      0.09568726069776905,
      0.03565385902336226,
      0.016788863696187716,
      -0.1332416853172036,
      0.021989759798297488,
      0.08533871221304684,
      -0.11416243256054898,
      0.008661064252453138,
      0.11447348663149196
    ],
    [
      0.04773712117769534,
      -0.02394974313453041,
      0.15656672901447177,
      -0.003587948579330868,
      -0.2745899211805611,
      0.06518714152420765,
      -0.2779857775776289,
      -0.0575093503406301,
      -0.16622548303815401,
      0.18906554408718756,
      -0.1273062224757672,
      -0.08978042288321658
    ],
    [
      -0.19938449869685532,
      0.16174267890353994,
      -0.10199441051305864,
      -0.03767419436402267,
      0.019958147226095613,
      0.03523864596737852,
      0.014619756557195893,
      0.11882997652639456,
      -0.0942139506860888,
      -0.0815143130753368,
      0.02430999758278253,
      -0.012173129570998234
    ],
    [
      -0.02196563683229428,
      -0.06371762414048061,
      -0.10680705605284918,
      0.014743288660129368,
      -0.047793327207554526,
      0.0005118642562040948,
      0.07369992074581948,
      -0.004499589947519384,
      -0.19972635497702174,
      0.02103398771095231,
      0.014077786824743308,
      -0.19228650392140054
    ]
  ],
  "bias_hidden": [
    [
      0.0,
      0.00037033375701867044,
      0.0,
      0.0,
      0.0,
      0.00048487307503819466,
      0.0,
      9.245040564564988e-05,
      0.0,
      0.0,
      0.00042995080002583563,
      0.0
    ]
  ],
  "weights_hidden_output": [
    [
      -0.20553421359674082
    ],
    [
      0.06064515796485039
    ],
    [
      -0.035158084651124445
    ],
    [
      0.0891112234598546
    ],
    [
      -0.2092690609683944
    ],
    [
      0.13095934522169855
    ],
    [
      0.062341524673143356
    ],
    [
      0.015123803465515076
    ],
    [
      0.017240877062162836
    ],
    [
      -0.05109488572039864
    ],
    [
      0.06991770696669605
    ],
    [
      -0.02834093812097599
    ]
  ],
  "bias_output": [
    [
      0.006182233802974224
    ]
  ],
  "training_history_count": 5,
  "epoch_losses": []
}