{
  "timestamp": "2026-01-09T17:49:12.069523",
  "input_size": 6,
  "hidden_size": 12,
  "learning_rate": 0.01,
  "weights_input_hidden": [
    [
      -0.10364318639039993,
      0.0502777136862278,
      -0.086710125207901,
      -0.03246679902076721,
      -0.04851871728897095,
      -0.11720353364944458,
      -0.011540473438799381,
      -0.062192801386117935,
      -0.09360171109437943,
      -0.0899539515376091,
      0.12776271998882294,
      -0.12575896084308624
    ],
    [
      -0.03220268338918686,
      0.043903134763240814,
      0.012096686288714409,
      -0.10954182595014572,
      -0.08273762464523315,
      0.13377737998962402,
      -0.12112140655517578,
      0.05178830027580261,
      -0.14072440564632416,
      0.18557775020599365,
      0.0021593202836811543,
      0.11236728727817535
    ],
    [
      -0.050520140677690506,
      0.048574648797512054,
      -0.20401915907859802,
      0.09568726271390915,
      0.03565385937690735,
      0.017062952741980553,
      -0.1332416832447052,
      0.022045839577913284,
      0.08533871173858643,
      -0.11416243016719818,
      0.008920403197407722,
      0.11447348445653915
    ],
    [
      0.04773712158203125,
      -0.023799428716301918,
      0.15656672418117523,
      -0.0035879486240446568,
      -0.2745899260044098,
      0.06534837931394577,
      -0.2779857814311981,
      -0.05747196450829506,
      -0.16622547805309296,
      0.18906554579734802,
      -0.1271333247423172,
      -0.08978042006492615
    ],
    [
      -0.19938449561595917,
      0.1619682013988495,
      -0.10199441015720367,
      -0.0376741960644722,
      0.019958147779107094,
      0.035512737929821014,
      0.014619756489992142,
      0.11888604611158371,
      -0.09421394765377045,
      -0.08151431381702423,
      0.02456933818757534,
      -0.012173129245638847
    ],
    [
      -0.02196563594043255,
      -0.06354755163192749,
      -0.10680705308914185,
      0.014743288978934288,
      -0.04779332876205444,
      0.0007020379416644573,
      0.07369992136955261,
      -0.004457291215658188,
      -0.19972635805606842,
      0.021033987402915955,
      0.01427339855581522,
      -0.19228650629520416
    ]
  ],
  "bias_hidden": [
    [
      0.0,
      0.0006709570880047977,
      0.0,
      0.0,
      0.0,
      0.0008073498029261827,
      0.0,
      0.000167222271556966,
      0.0,
      0.0,
      0.000775738270021975,
      0.0
    ]
  ],
  "weights_hidden_output": [
    [
      -0.2055342197418213
    ],
    [
      0.061507899314165115
    ],
    [
      -0.03515808284282684
    ],
    [
      0.08911122381687164
    ],
    [
      -0.20926906168460846
    ],
    [
      0.13097158074378967
    ],
    [
      0.06234152615070343
    ],
    [
      0.015269187279045582
    ],
    [
      0.017240876331925392
    ],
    [
      -0.05109488591551781
    ],
    [
      0.07040142267942429
    ],
    [
      -0.028340937569737434
    ]
  ],
  "bias_output": [
    [
      0.011115497909486294
    ]
  ],
  "training_history_count": 4,
  "epoch_losses": []
}