{
  "timestamp": "2026-01-08T17:34:46.201912",
  "input_size": 6,
  "hidden_size": 12,
  "learning_rate": 0.01,
  "weights_input_hidden": [
    [
      0.2268245965242386,
      0.010388229042291641,
      0.06567613035440445,
      0.15201877057552338,
      -0.2089555859565735,
      -0.017523881047964096,
      -0.08401976525783539,
      -0.017417773604393005,
      0.2330666482448578,
      0.10848652571439743,
      0.06821150332689285,
      0.11898265779018402
    ],
    [
      0.03594660386443138,
      -0.06378059089183807,
      0.0961001068353653,
      0.08859217911958694,
      0.08852701634168625,
      -0.05092098191380501,
      -0.0036104656755924225,
      -0.05997059494256973,
      -0.06417886167764664,
      -0.09601515531539917,
      -0.13055621087551117,
      -0.13228730857372284
    ],
    [
      0.07136368006467819,
      -0.06976199895143509,
      0.042974792420864105,
      0.194512739777565,
      -0.037258751690387726,
      0.008657100610435009,
      -0.0776686817407608,
      0.025223776698112488,
      -0.11708055436611176,
      0.07124461233615875,
      -0.016527289524674416,
      0.05400708690285683
    ],
    [
      0.15048329532146454,
      0.023138325661420822,
      0.04213482141494751,
      0.07313632220029831,
      -0.08438603579998016,
      -0.15721073746681213,
      0.14779064059257507,
      -0.16785860061645508,
      -0.10580737888813019,
      0.019765812903642654,
      -0.020077668130397797,
      0.016143057495355606
    ],
    [
      -0.015597129240632057,
      -0.052145373076200485,
      0.1316789984703064,
      0.234495148062706,
      0.19873887300491333,
      0.06384792923927307,
      0.15274125337600708,
      0.03963474929332733,
      0.05087300017476082,
      0.14105764031410217,
      -0.03175937011837959,
      -0.09778515249490738
    ],
    [
      0.2666979432106018,
      0.1692662239074707,
      -0.000726500409655273,
      0.10207370668649673,
      0.09486155211925507,
      -0.046466704457998276,
      -0.15070268511772156,
      0.1394805610179901,
      -0.03947483003139496,
      -0.044482436031103134,
      0.05538097396492958,
      -0.02562860958278179
    ]
  ],
  "bias_hidden": [
    [
      0.09362156689167023,
      -0.00878998078405857,
      -0.01188016589730978,
      0.18139199912548065,
      -0.02474876679480076,
      0.0,
      -7.253717922139913e-05,
      -0.0004036937025375664,
      0.0,
      0.04119415208697319,
      0.0,
      0.0
    ]
  ],
  "weights_hidden_output": [
    [
      -0.2542341947555542
    ],
    [
      0.12403098493814468
    ],
    [
      -0.05145321041345596
    ],
    [
      -0.3894226849079132
    ],
    [
      0.02349904738366604
    ],
    [
      0.07592111825942993
    ],
    [
      0.1155831590294838
    ],
    [
      -0.16183263063430786
    ],
    [
      0.13087475299835205
    ],
    [
      -0.08989403396844864
    ],
    [
      -0.15231859683990479
    ],
    [
      0.057361453771591187
    ]
  ],
  "bias_output": [
    [
      -0.8026848435401917
    ]
  ],
  "training_history_count": 480,
  "epoch_losses": []
}