{
  "timestamp": "2026-01-08T17:11:40.737658",
  "input_size": 6,
  "hidden_size": 12,
  "learning_rate": 0.01,
  "weights_input_hidden": [
    [
      0.2262297421693802,
      0.010388229042291641,
      0.06555624306201935,
      0.15110692381858826,
      -0.2089003473520279,
      -0.017523881047964096,
      -0.08401976525783539,
      -0.017417773604393005,
      0.2330666482448578,
      0.10827605426311493,
      0.06821150332689285,
      0.11898265779018402
    ],
    [
      0.03535174950957298,
      -0.06378059089183807,
      0.0959802195429802,
      0.0876803994178772,
      0.08858226239681244,
      -0.05092098191380501,
      -0.0036104656755924225,
      -0.05997059494256973,
      -0.06417886167764664,
      -0.09622562676668167,
      -0.13055621087551117,
      -0.13228730857372284
    ],
    [
      0.0707688182592392,
      -0.06976199895143509,
      0.042854905128479004,
      0.19360089302062988,
      -0.037203505635261536,
      0.008657100610435009,
      -0.0776686817407608,
      0.025223776698112488,
      -0.11708055436611176,
      0.07103414088487625,
      -0.016527289524674416,
      0.05400708690285683
    ],
    [
      0.14988844096660614,
      0.023138325661420822,
      0.04201493412256241,
      0.07222454249858856,
      -0.08433078974485397,
      -0.15721073746681213,
      0.14779064059257507,
      -0.16785860061645508,
      -0.10580737888813019,
      0.019555343315005302,
      -0.020077668130397797,
      0.016143057495355606
    ],
    [
      -0.016191983595490456,
      -0.052145373076200485,
      0.1315591186285019,
      0.23358330130577087,
      0.19879411160945892,
      0.06384792923927307,
      0.15274125337600708,
      0.03963474929332733,
      0.05087300017476082,
      0.14084717631340027,
      -0.03175937011837959,
      -0.09778515249490738
    ],
    [
      0.2661030888557434,
      0.1692662239074707,
      -0.0008463862468488514,
      0.10116192698478699,
      0.09491679817438126,
      -0.046466704457998276,
      -0.15070268511772156,
      0.1394805610179901,
      -0.03947483003139496,
      -0.04469290375709534,
      0.05538097396492958,
      -0.02562860958278179
    ]
  ],
  "bias_hidden": [
    [
      0.09243185818195343,
      -0.00878998078405857,
      -0.012119937688112259,
      0.17956843972206116,
      -0.024638274684548378,
      0.0,
      -7.253717922139913e-05,
      -0.0004036937025375664,
      0.0,
      0.040773212909698486,
      0.0,
      0.0
    ]
  ],
  "weights_hidden_output": [
    [
      -0.25207221508026123
    ],
    [
      0.12403098493814468
    ],
    [
      -0.05062241852283478
    ],
    [
      -0.38659563660621643
    ],
    [
      0.023504525423049927
    ],
    [
      0.07592111825942993
    ],
    [
      0.1155831590294838
    ],
    [
      -0.16183263063430786
    ],
    [
      0.13087475299835205
    ],
    [
      -0.08923278748989105
    ],
    [
      -0.15231859683990479
    ],
    [
      0.057361453771591187
    ]
  ],
  "bias_output": [
    [
      -0.7979834079742432
    ]
  ],
  "training_history_count": 469,
  "epoch_losses": []
}