{
  "timestamp": "2026-01-08T20:29:10.287450",
  "input_size": 6,
  "hidden_size": 12,
  "learning_rate": 0.01,
  "weights_input_hidden": [
    [
      0.2309582531452179,
      0.010388229042291641,
      0.06653335690498352,
      0.15832504630088806,
      -0.20915986597537994,
      -0.017523881047964096,
      -0.08401976525783539,
      -0.017417773604393005,
      0.2330666482448578,
      0.1099427118897438,
      0.06821150332689285,
      0.11898265779018402
    ],
    [
      0.0400802344083786,
      -0.06378059089183807,
      0.09695733338594437,
      0.09489846229553223,
      0.08832275867462158,
      -0.05092098191380501,
      -0.0036104656755924225,
      -0.05997059494256973,
      -0.06417886167764664,
      -0.0945589691400528,
      -0.13055621087551117,
      -0.13228730857372284
    ],
    [
      0.0754973292350769,
      -0.06976199895143509,
      0.04383201152086258,
      0.2008190155029297,
      -0.0374629981815815,
      0.008657100610435009,
      -0.0776686817407608,
      0.025223776698112488,
      -0.11708055436611176,
      0.07270079851150513,
      -0.016527289524674416,
      0.05400708690285683
    ],
    [
      0.15461695194244385,
      0.023138325661420822,
      0.042992040514945984,
      0.07944260537624359,
      -0.08459029346704483,
      -0.15721073746681213,
      0.14779064059257507,
      -0.16785860061645508,
      -0.10580737888813019,
      0.021222002804279327,
      -0.020077668130397797,
      0.016143057495355606
    ],
    [
      -0.011463488452136517,
      -0.052145373076200485,
      0.1325361728668213,
      0.24080142378807068,
      0.19853459298610687,
      0.06384792923927307,
      0.15274125337600708,
      0.03963474929332733,
      0.05087300017476082,
      0.14251384139060974,
      -0.03175937011837959,
      -0.09778515249490738
    ],
    [
      0.2708315849304199,
      0.1692662239074707,
      0.000130717788124457,
      0.10837998986244202,
      0.0946572944521904,
      -0.046466704457998276,
      -0.15070268511772156,
      0.1394805610179901,
      -0.03947483003139496,
      -0.043026238679885864,
      0.05538097396492958,
      -0.02562860958278179
    ]
  ],
  "bias_hidden": [
    [
      0.10188882797956467,
      -0.00878998078405857,
      -0.010165730491280556,
      0.19400456547737122,
      -0.025157278403639793,
      0.0,
      -7.253717922139913e-05,
      -0.0004036937025375664,
      0.0,
      0.044106531888246536,
      0.0,
      0.0
    ]
  ],
  "weights_hidden_output": [
    [
      -0.2691410779953003
    ],
    [
      0.12403098493814468
    ],
    [
      -0.05711519345641136
    ],
    [
      -0.4089970290660858
    ],
    [
      0.023490071296691895
    ],
    [
      0.07592111825942993
    ],
    [
      0.1155831590294838
    ],
    [
      -0.16183263063430786
    ],
    [
      0.13087475299835205
    ],
    [
      -0.0944707915186882
    ],
    [
      -0.15231859683990479
    ],
    [
      0.057361453771591187
    ]
  ],
  "bias_output": [
    [
      -0.8342949748039246
    ]
  ],
  "training_history_count": 7,
  "epoch_losses": []
}