{
  "timestamp": "2026-01-12T22:51:39.566117",
  "input_size": 6,
  "hidden_size": 12,
  "learning_rate": 0.01,
  "weights_input_hidden": [
    [
      0.33357667922973633,
      0.010388229042291641,
      0.09324727952480316,
      0.3081842362880707,
      -0.20915986597537994,
      -0.017523881047964096,
      -0.08401976525783539,
      -0.017417773604393005,
      0.2330666482448578,
      0.14466695487499237,
      0.06821150332689285,
      0.11898265779018402
    ],
    [
      0.1426985114812851,
      -0.06378059089183807,
      0.12367129325866699,
      0.24475793540477753,
      0.08832275867462158,
      -0.05092098191380501,
      -0.0036104656755924225,
      -0.05997059494256973,
      -0.06417886167764664,
      -0.05983477830886841,
      -0.13055621087551117,
      -0.13228730857372284
    ],
    [
      0.17811565101146698,
      -0.06976199895143509,
      0.07054615020751953,
      0.3506779372692108,
      -0.0374629981815815,
      0.008657100610435009,
      -0.0776686817407608,
      0.025223776698112488,
      -0.11708055436611176,
      0.10742498934268951,
      -0.016527289524674416,
      0.05400708690285683
    ],
    [
      0.25723546743392944,
      0.023138325661420822,
      0.06970617920160294,
      0.22930215299129486,
      -0.08459029346704483,
      -0.15721073746681213,
      0.14779064059257507,
      -0.16785860061645508,
      -0.10580737888813019,
      0.05594628304243088,
      -0.020077668130397797,
      0.016143057495355606
    ],
    [
      0.0911548063158989,
      -0.052145373076200485,
      0.15925021469593048,
      0.3906601071357727,
      0.19853459298610687,
      0.06384792923927307,
      0.15274125337600708,
      0.03963474929332733,
      0.05087300017476082,
      0.17723841965198517,
      -0.03175937011837959,
      -0.09778515249490738
    ],
    [
      0.37344974279403687,
      0.1692662239074707,
      0.026844851672649384,
      0.2582393288612366,
      0.0946572944521904,
      -0.046466704457998276,
      -0.15070268511772156,
      0.1394805610179901,
      -0.03947483003139496,
      -0.008302093483507633,
      0.05538097396492958,
      -0.02562860958278179
    ]
  ],
  "bias_hidden": [
    [
      0.30712559819221497,
      -0.00878998078405857,
      0.043262410908937454,
      0.4937235414981842,
      -0.025157278403639793,
      0.0,
      -7.253717922139913e-05,
      -0.0004036937025375664,
      0.0,
      0.11355510354042053,
      0.0,
      0.0
    ]
  ],
  "weights_hidden_output": [
    [
      -0.6129520535469055
    ],
    [
      0.12403098493814468
    ],
    [
      -0.17263512313365936
    ],
    [
      -0.8790258765220642
    ],
    [
      0.023490071296691895
    ],
    [
      0.07592111825942993
    ],
    [
      0.1155831590294838
    ],
    [
      -0.16183263063430786
    ],
    [
      0.13087475299835205
    ],
    [
      -0.2039824277162552
    ],
    [
      -0.15231859683990479
    ],
    [
      0.057361453771591187
    ]
  ],
  "bias_output": [
    [
      -1.3234893083572388
    ]
  ],
  "training_history_count": 869,
  "epoch_losses": [
    0.001545717823319137,
    0.0015454109525308013,
    0.0015451033832505345,
    0.0015447979094460607,
    0.0015444910386577249,
    0.0015441845171153545,
    0.0015438793925568461,
    0.0015435726381838322,
    0.0015432665823027492,
    0.0015429604100063443,
    0.0015120093012228608,
    0.0015117143047973514,
    0.0015114195412024856,
    0.001511123962700367,
    0.0015108288498595357,
    0.0015105350175872445,
    0.0015102406032383442,
    0.0015099461888894439,
    0.001509651425294578,
    0.0015093573601916432,
    0.0015090623637661338,
    0.0015087687643244863,
    0.0015084742335602641,
    0.0015081807505339384,
    0.0015078869182616472,
    0.0014781506033614278,
    0.0014778674812987447,
    0.0014775849413126707,
    0.0014773011207580566,
    0.0014770178822800517,
    0.001476735225878656,
    0.0014764516381546855,
    0.0014761689817532897,
    0.0014758858596906066,
    0.001475603086873889,
    0.0014753203140571713,
    0.0014750377740710974,
    0.0014747550012543797,
    0.0014744731597602367,
    0.0014741895720362663,
    0.001445605419576168,
    0.0014453327748924494,
    0.0014450596645474434,
    0.0014447873691096902,
    0.001444515772163868,
    0.0014442424289882183,
    0.0014439700171351433,
    0.0014436980709433556,
    0.0014434255426749587,
    0.0014431537128984928,
    0.0014428814174607396,
    0.0014426101697608829,
    0.001442338339984417,
    0.0014420667430385947,
    0.0014417950296774507,
    0.0014143005246296525,
    0.001414037775248289,
    0.0014137764228507876,
    0.001413513906300068,
    0.001413252204656601,
    0.0014129902701824903,
    0.0014127283357083797,
    0.0014124660519883037,
    0.0014122042339295149,
    0.0014119426487013698,
    0.0014116807142272592,
    0.0014114193618297577,
    0.0014111569616943598,
    0.0014108960749581456,
    0.0014106340240687132,
    0.0013841699110344052,
    0.0013839165912941098,
    0.001383664202876389,
    0.0013834122801199555,
    0.0013831598917022347,
    0.0013829069212079048,
    0.0013826541835442185,
    0.0013824020279571414,
    0.0013821508036926389,
    0.001381898415274918,
    0.001381646259687841,
    0.0013813944533467293,
    0.0013811428798362613,
    0.0013808907242491841,
    0.0013806389179080725,
    0.0013551519950851798,
    0.0013549084542319179,
    0.0013546652626246214,
    0.0013544227695092559,
    0.0013541782973334193,
    0.0013539360370486975,
    0.0013536940095946193,
    0.0013534511672332883,
    0.0013532070443034172,
    0.00135296571534127,
    0.0013527231058105826,
    0.0013524801470339298,
    0.0013522383524104953,
    0.001351996324956417,
    0.001351754181087017
  ]
}