{
  "timestamp": "2026-01-08T20:37:58.205186",
  "input_size": 6,
  "hidden_size": 12,
  "learning_rate": 0.01,
  "weights_input_hidden": [
    [
      0.2344333380460739,
      0.010388229042291641,
      0.06728319823741913,
      0.16359062492847443,
      -0.20915986597537994,
      -0.017523881047964096,
      -0.08401976525783539,
      -0.017417773604393005,
      0.2330666482448578,
      0.11115924268960953,
      0.06821150332689285,
      0.11898265779018402
    ],
    [
      0.043555308133363724,
      -0.06378059089183807,
      0.09770717471837997,
      0.10016404092311859,
      0.08832275867462158,
      -0.05092098191380501,
      -0.0036104656755924225,
      -0.05997059494256973,
      -0.06417886167764664,
      -0.09334243834018707,
      -0.13055621087551117,
      -0.13228730857372284
    ],
    [
      0.07897244393825531,
      -0.06976199895143509,
      0.04458188638091087,
      0.20608459413051605,
      -0.0374629981815815,
      0.008657100610435009,
      -0.0776686817407608,
      0.025223776698112488,
      -0.11708055436611176,
      0.07391732931137085,
      -0.016527289524674416,
      0.05400708690285683
    ],
    [
      0.15809203684329987,
      0.023138325661420822,
      0.04374191537499428,
      0.08470818400382996,
      -0.08459029346704483,
      -0.15721073746681213,
      0.14779064059257507,
      -0.16785860061645508,
      -0.10580737888813019,
      0.0224385317414999,
      -0.020077668130397797,
      0.016143057495355606
    ],
    [
      -0.007988400757312775,
      -0.052145373076200485,
      0.13328616321086884,
      0.24606700241565704,
      0.19853459298610687,
      0.06384792923927307,
      0.15274125337600708,
      0.03963474929332733,
      0.05087300017476082,
      0.14373035728931427,
      -0.03175937011837959,
      -0.09778515249490738
    ],
    [
      0.27430665493011475,
      0.1692662239074707,
      0.0008805893012322485,
      0.11364556849002838,
      0.0946572944521904,
      -0.046466704457998276,
      -0.15070268511772156,
      0.1394805610179901,
      -0.03947483003139496,
      -0.04180971533060074,
      0.05538097396492958,
      -0.02562860958278179
    ]
  ],
  "bias_hidden": [
    [
      0.10883897542953491,
      -0.00878998078405857,
      -0.008665986359119415,
      0.20453572273254395,
      -0.025157278403639793,
      0.0,
      -7.253717922139913e-05,
      -0.0004036937025375664,
      0.0,
      0.04653958976268768,
      0.0,
      0.0
    ]
  ],
  "weights_hidden_output": [
    [
      -0.2815319001674652
    ],
    [
      0.12403098493814468
    ],
    [
      -0.0617404505610466
    ],
    [
      -0.4253673553466797
    ],
    [
      0.023490071296691895
    ],
    [
      0.07592111825942993
    ],
    [
      0.1155831590294838
    ],
    [
      -0.16183263063430786
    ],
    [
      0.13087475299835205
    ],
    [
      -0.09829630702733994
    ],
    [
      -0.15231859683990479
    ],
    [
      0.057361453771591187
    ]
  ],
  "bias_output": [
    [
      -0.8595491647720337
    ]
  ],
  "training_history_count": 28,
  "epoch_losses": []
}